  68  -34    1  -69  -63   31   54  -39  -10   42   -9   74  -65   43   27  -36
  18    0   83  -14   19   14   41   38   -2  -14  -33   64  -46   11  -27  -42
 -50   10   78   48   65  -22  -26   49  -13  -70   21   92   43  -46   19  -40
 -15   59   45 -106    3   80   -4  -16   24   41   31   20 -104   23  -59   57
 -25   58  -15  -57   18   85   47   56   35  -52   46   93  -28   -4   -7   41
 -15  -20   49   29   -6   39   54   21   23 -115   71   75   20  -53   31   48
  17  104   58  -60   -3   72   83   36   -1   30   11  -17  -75   45  -27   14
   5   -1   -1  -67  -17   54   94   16   11  -74   28  -17  -45    1   70   60
  15  -74   -9  -62  -26   12   41    6   36  -57    1  -23  -48  -79   48   88
  39   44   -4   15  -29    4  -47  -44    9  -20   -9   -8   25  -15  -70   33
  12   46  -68   37   63    0  -62   28   -6    7    9   -7   37   23  -34   -6
  -1  -68    6  -39   -2   -1  -34   42  -13   12   32  -18   17   17   34   37
  -9   66   24    3    0  -25    9   61   31  -47   19  -74   35    8  -25  -28
  16  -15   24   63   -1   -2   16   15  -17  -46    6  -29    8    7   -4  -34
  -6 -128   -6  -44  -13  -24   26   22   23   36  -19  -61  -18    7   13   28
 -22   31    8   20   38   -3   36   56  -22  -24  -21  -18   36  -52   20  -97
 -15  -60   59   59   14  -28   -5    1   -2    5  -17   -3   58  -39   11  -82
 -19   36   18   20   12  -31   -1  -31  -34   46  -44   37  -18    7  -46  -71
  12   34  -28   21   13   17  -26   47   -6  -50   37   -7    9   14  -49   27
 -36  -22  -67  -11   17   14   19    6  -20  -44   33  -10   -5   20   33    3
 -21  -53  -22  -45  -16   23  -15   -8   30    5   10  -16  -42   -8  -14   28
   9   11   45   43   34   17   43   36    8   -5   12  -29   26  -14  -12  -23
  43  -60   -9   -6  -28   -7   -6  -18   34  -26   23  -14  -16   29   12  -16
  37  -36   20  -38  -22   -9   -4   11   25   41  -27    1  -25   31    7   28
  32  -35   -3   19  -27    8   41  -14  -41  -46  -33    9   31  -61   15  -25
  37  -61   60   48  -45   19  -18    0  -35   31  -19   15   40  -26   19  -73
  45   46   28   65  -43  -18  -18  -30    6   55   -3    7  -10   22  -19  -81
  42   15  -64  -26   61   10  -44   23   -1   -2  -15   55   39   15  -36    7
 -26  -31   -8  -39    8  -49  -52   30  -32   17   -5   10   -9   37    1   27
 -14  -78  -22  -18   -9   15    3   23  -57   11   37   49   -9   18   11    2
  -2   68  -29   -1   38   50   16   59   31  -53   27  -56   44    6   12   33
  18  -72    5  -40   34   56   43  -14   26    2   32  -21    1   -2   52   50
 -11  -38   -3  -61  -31   14   25    2   50   64  -11  -44  -71   16   37   11
  14  -10   37   20   -6   23    7   19   21   -1   -9   24    6   10   49  -92
  40  -66   66   30  -20  -10   24  -45  -11   12  -12   -1  -15    2   32  -45
  37    5   51   15  -15   31    9    3   36   48   17   30  -54   15   -9  -75
  42   63  -27   22   17  -26    5  -37   13  -32  -15   12   57   -1  -51  -34
 -23   15  -72   23   38  -67  -42   60   -5    5   -7    8   18   18   -9   14
 -26  -25  -21  -27   43  -56   -8   22  -67   24   35   60  -10   19   23  -12
  -6   89   -2   27   46   20   11   37    3  -48   34  -27   45    7  -43   12
  -1   16  -41   -6   43   26  -11   26   33  -68   40  -18   60   -6   19   14
  -6 -115  -37  -14  -58   15   15  -10   33   41    4  -15  -60   21   51   32
  19    7   -6   39   41   15   13   56  -27  -56   24  -23   37  -44   21  -82
  30  -69   37   17   -7   -2    7   11  -16    8  -29  -47   68  -40   36  -16
 -13   10    9   37  -59   23    8   17  -13   23  -18    4  -44   20  -39  -15
  23   24   -9   42    7   29  -29    0  -15   -7    1   65   17   15  -59   41
  14   28  -48   15   -1  -23  -26   -6   -1   32    2   43   19   29   16    0
 -39  -48   -9  -53  -17  -40  -11   31    6   52   29   51   -9   32   26   21
  -7    7   -4   36  -14   37    5    5   27  -49    5  -32   16    7   -6    7
  -9  -24  -11   47   31   12   10   26   23   14   -3   -1    2   39   21   39
  11  -68  -22  -44  -58   25   19  -20   28   23   -5  -41  -44   27   -3    9
 -15   13   46   51   -2  -18   -6   41    5   -9  -10  -28   32    6   -4  -61
  15  -41   62   72  -37   30   28   15   28   -5  -35  -25   24   13   32  -49
  43    1    5   23  -21   -8  -37   -4   -1   23    5    8    4   41  -16  -39
 -15   46  -22   24   44  -16   12   33  -17    5   10   17   45  -12   -7  -23
 -49  -49  -48  -21  -10   -1   -3   22   -5   25    6   26   13   45   -3   32
   7  -32  -34  -24  -61   -4   22    5  -43   58   41   42  -44   21  -13   34
  21   34    9   22   21   -3    2   -2   16  -56  -12  -16   12  -32   27  -11
   4  -74    0  -16   -8   42    1  -28   21   48  -24  -45  -45   45   11   28
  -5  -11    9  -43  -54   31   -6   14   -8   59   -5  -39  -66   -7    8   31
  24  -70   35   39  -20  -26   21  -23  -24  -21  -27   -8   21  -22   52  -38
  34  -14   33   16  -50  -26  -27  -13    6   37  -20   18  -18  -22  -28  -59
   8   56   57   23  -43  -31  -38   22   -9    9   -8  -14  -40   42  -11  -50
  10   10  -29  -15   34  -15  -22  -31   45  -22   23    8    7    9  -63   -6
 -34   37  -13   16   42  -10  -13  -10   33  -26    8   42   47    5  -20   23
 -10  -40  -26  -47   12    3   11   22   24   -5   33    8  -24   40   31   49
  34   15   -9   63   38   13   28   12   31  -26   -6  -39   32    6   12   30
  27  -27    5   39  -15   59    1   20   55   -3   -3    5   36   32   38    9
  -7  -70   -8  -53  -32   41  -10   21   47   41    3   -5  -20   38   24   29
  25   -6   -2    4    7   18   22  -13   12  -59  -17   -6   48  -41  -24  -75
  48  -85   21   49   -2   -7  -13  -41    4  -20  -26   34   17   17   -9  -17
  30   12   45   20  -33   22  -36  -39  -17   -7   25   26   13   30  -22  -57
