 -19  -34   16   32   30   21   18   17   16  -16    6   31   -6   24    2   20
  46  -21    4   14    0    4    3   14  -24   34  -11    3   10    8   -2   30
  20    5    7   19    1   -3  -15   -5    7   37   49  -32   -2  -13   20   19
 -38  -37   34   22  -18  -11    7    6    6  -51   -3   22    6   -3    6   -7
 -48   -7   25    4   24   14   12   21    2   -4  -13   10    4   27   -6   -2
  -9   -3   -4  -19  -24  -25   12   15   -8  -18  -23   24  -13   -6   19    0
  15  -19   13   -7   38   34  -12   12  -31   21   -1   12   24  -12  -12  -29
  26  -17  -24    2    0   24   34   24  -37    9    9    6   37   -6  -20    3
 -14   13    8    3   -4   35   39   34  -22   19  -15   13    9   29    8   -5
 -82   30  -35  -16 -103  -14   -1  -55   81  -20   61  -19    0  -42   21   -8
 -37   25  -35  -22  -30   14   -8  -38   28   -9   28  -37   22   26   -7  -72
 -34   63   15  -36  -11   16  -11  -45   50  -63   46   -5   66   -9  -29  -68
 -33   10  -34  -35  -41   17   -2   21  -26   -3   16   -7  -21  -45  -15  -28
 -65   35  -12  -13  -14    0   -9    1    8  -81  -21   75  -73   26   18    6
  10  -79    4   31   18  -11  -46   16    8   41    0  -13    1   15    9    4
  -8   22    2   -4   40  -47  -26   43  -24  -19   -9    6 -128  -24   -9   24
  88   54   43  -12   56  -39  -27   -7    3  -18  -15   11  -33  -21   15   29
  43  -15  -21   42   20  -17   -6   38  -10   41  -20  -10    1   -7  -22   -6
  -8   22   21  -10   -3   -9   51    1   -7  -66   19   -2   22   16  -15   35
   1   30   24   42   24   16   58   14    7   14   -5  -14   63   14   14   21
   5   12    8   27  -10  -11   38   12   -4   43  -18   -1   13  -43  -12   14
  10  -15   43  -15   -2  -14   -3  -12  -13  -19   -2    5  -28  -41    0  -32
 -34   43    4   43  -57  -28  -17  -15    3  -32    9  -40   25  -13   -3    0
 -19   41   26   37    4  -10   -8   -5  -31   10    2   35   28  -20  -22  -14
  59   16    1   52   -8   76  -14  -29  -37   91  -40  -62   24  -30   14  -27
  15    3  -17   45  -28   60   26  -51  -26   91  -17  -36   37    4   -5  -17
 -48   20  -18    3  -26   27   21  -17  -21   25  -17    1  -10   25   14  -24
  49    2   11   43   66   -3   27   50    0  -26   30    2   11   27    0    9
  49  -44   10   53   50  -27   13   33  -28   48   40   -7    8   -3    2    1
  10  -44   -2   26   -7  -33    4   20   32   32  -16    4  -24  -13   19    3
  35    6   14   46  -12  -21  -33  -47   26  -22  -23  -35  -17  -22    4    8
   8   -7   30  -11   22    5   10  -19  -12  -41   -3  -21   36    3  -14  -18
   5   -6   14  -27   18   26   24    7   25  -35  -15   18   28  -13    0    9
   8   16  -10   28  -23   12   11  -11  -11   19   31   26   58   -3  -13  -35
 -41   22  -29  -15   20   25   13  -37   -1   15   -1   29  -20  -22   16   -4
  -1  -11  -33    8    3   26   34   50  -33  -23   16    8   -3   -8  -17  -21
 -26   29  -18   -1  -35    5  -30  -54   36  -42    4   -6  -51  -30  -16   15
  21   14  -24  -33  -35  -17  -25  -45   49  -36  -10   11   37   26  -13   -8
  34   21   -2  -20   18   -5    6  -32   38  -47    6  -12   34  -15   -9  -44
 -71   27   -5   -4  -26  -33   27   -7   17  -66   -8   54  -15  -19    0  -20
 -39   -5    8    7   30  -37   29   34   12  -37    8   38  -17  -13   21  -25
  25  -29    5    0   -1  -33  -43  -20   10  -13   23   16  -30   10    9    6
  -8   35   20  -38   25  -35   30   10   -2  -43  -24   37  -36   14    8  -18
   8   16   29   -4   64  -56  -21    2   -4   16   -8   26  -27    5  -15  -13
  41    0  -20   32  -21  -19   11   26   24    9  -15  -26   21  -16  -31  -18
   3    8    9    1   -3  -20   -1   27  -27   19  -24   25  -15   47  -24   43
  13   -9   -5  -19    4    4  -25   26  -25   18    7   -6   17   -5   11   31
   5  -10  -48   -1  -22    9    2   -5    2   17   27  -16   15   -3   -9   39
 -18  -14   16   33  -12  -13  -15   -1   -4  -33   18   25   22   12    2  -16
  -1   -8   12   32   -3  -31   23   11    2  -31   30   24   -6    5  -19  -12
 -31   29  -16   39  -10   -1   20   12    3   -2   36   -3   11   16  -30    6
  14  -22   25  -32   45    5    0   -9   21  -11  -26   15   41    8   22   -3
  36   -6  -22   -7   18   23   43   22   -9   38  -30  -16    6    6    2    3
 -10   25  -10  -17   -7   26   30  -14  -45  -10   -6   23   31   33  -25  -17
 -13    9   49   -5   10  -11    7   11   14  -36   17    5  -27   -1    2   40
  -9   14  -24  -15    3   15   20   13    0   13  -10  -11   34   39  -21    3
  21    3   -8  -19  -16   13   -3  -35   16   -4   44  -15   52  -29    3  -14
 -28  -11   18    3   -5    0   30   27   14  -18   12    8    5    0  -15  -32
 -37  -13    7   -3   -6  -16   -6   13   -6  -19    8   32   -1    2   -3  -13
 -18   14   -1    6  -22  -13  -14   37    9  -29   23  -20   34  -19  -19   13
  17    1   36    3   53   -6   30   -5  -27   13   -5  -22   16   -3  -28    8
  21   -8    0   14   11    6    4  -14  -32   58   18   -3   41  -40  -17   24
   9    3   -5   15  -35   16    6   43   -8    0   31  -19   18   18   14  -11
  -4   -3   32   16    5    1  -34    2   -9   -9   32   47  -21   25  -23   30
   0   18  -14  -32    2   -2  -34  -52  -20    7  -14   14   36  -11   15   10
  30   13  -55  -20    0   -2    1    1   27  -43   52   34   37    0  -18   17
  -1   11    2   34  -11    7   24    1   11   -5   -2   14   58    0   20   26
 -38  -22  -10    9  -16   17   26  -24   -7   -5   17   51    4   -3  -12   16
 -32   -9  -30   -2   -2  -33  -34  -14   31   10   39   12  -26    5  -10  -19
 -33   11   -8  -11    8  -14   19   46   11  -33  -23    2   23   -5   18    8
  13   27   22  -23   27  -36   17  -12  -12    2    0   10   17   -9  -23   24
  41   -4    0    2   18  -25   15   16  -16    3  -38   -3   18   -2   -4  -18
  27   19   18    8    1   17  -25  -12  -34  -13   19    5    8   48   -5   43
  31  -21   -3   -2   22    3    0  -11    6   14    1  -14   22   39   -5   55
  49  -40  -28  -28  -18   21   13  -27   35   -8   32  -24  -18  -10   -7   27
 -13  -36   -5   41  -23  -14   17   -6    3  -22    1   21    2    3   11   -2
 -27  -13   34   49   -6    7  -12   -7   25  -22  -17  -14   12  -15   -7   -2
  -2   21   16   42  -27   19  -22   27   23  -36   30   -1   21   -4    3   -2
  26   -4   -8  -34   -2    2   11  -37  -16   37   19    7    9    0   -5  -24
  -9   11  -11  -27  -18    8   31    3  -29    6   23   -9    7   15   -2    6
  -2   16   -1  -37    1  -14   11   -8  -15  -17   14  -12    5   33  -27   -1
  69  -22  -42  -38  -24   34  -23  -29   15    1  -22   -3   26  -24  -10  -10
   5  -34  -39  -45  -59   38    6  -25   40    9   11    0  -14   43   16  -40
   0   20  -18  -28    9    2   -7   -6  -14  -32   46    5  -11   36   15  -49
 -32  -37  -13  -48   39   10   16    2   25  -12   26    1   15  -12  -19   15
  30    9   18  -28   96  -17    1   40   22  -11  -17   31  -62   34  -13   20
  44  -27    5   19   40  -28    9   34   -5   30  -26  -10  -32    0    8   23
 -49  -33  -12  -28    3    7  -40  -13  -20  -14    1   23  -56  -10    2   20
   3   12  -16  -24   13  -14   -3   40   -9   -3  -10   16  -37  -42   -9   23
  33   -1    8    9   45  -27   -7   22  -43   24  -45    9  -62    7   -8  -10
  38    8    6  -10   10   29  -27  -18  -66  -15  -13   -2  -12   -7    8   45
  15   51   -8  -36  -38    9   -2  -11   -7  -26    6    8   27  -12  -19   17
  26   31   -6  -22   15   22  -21  -44   -9    4   46   -3   47   -4    3   19
   4   -6    1   36    5   17   10    6  -15   -9  -12   -4    9   39  -17   10
  -9  -11   -7   51   -4   14  -11   16   35   32   24   13   18    2  -19    8
 -10   -5   17    4   -5  -15    8   -4   25   27   47   -2  -14   16  -16   28
  12  -14   44   -9    0  -31   20  -19   -4  -21  -11    1    5   30   22  -20
  18    8   16  -16    3  -22   17   -9   -1  -23    7    9   25   19   12   16
   8   14   20   18   -5  -16   -3    3    8   10  -43   -4   -8   34  -19   -8
  17   13   25  -11  -27   24    2  -20  -85  -10  -65  -32  -25  -22  -24    6
  -9   84   32   -2   11    6  -18  -22  -76  -23  -51  -30  -42  -21    8   38
  32   24  -20   17   27   11  -27  -39  -50    3  -37  -27    6  -79   17   26
   2   24   35   25   13   -1  -35   48  -70   21   41  -24  -51   34    1   30
  70   40   26   93  -20   -3   23  -28  -34   59    7  -45   35  -43   -4   46
  65   34   -7   35  -77   -2  -45  -42    6   80   60  -40   14  -30  -29   22
  -2  -46   55   27   20   18  -27  -53   30   34  -63  -52  -27   36   21  -10
  -8   53    6   52  -63   17  -37  -50    6   48  -18  -40   14  -24   15   -3
 -59   29    9   18  -12   31    9  -53    6  -16  -15  -10  -10   52   11  -28
  17  -14  -44    3   16   17  -12  -44   61  -20   47    4  -19   -2   18  -19
  -1  -25  -38   11   30   24    4   -2   21   74   -5   52  -13    2   -4  -38
 -20  -42  -12  -25  -22   -3  -10   20   22   18  -13   -6   -4   33   -3  -14
 -34    6  -24    4  -47   -3  -43  -43   47  -82  -49    6   21  -13  -21  -14
 -11  -53   14  -37   38   18   53   38    6 -101    7   -5   -8   12  -14   -5
  46  -34   15   10   15  -28   -3   36   10  -16   -7   -3  -11  -14   -4   -7
 -45   32  -17  -56  -15  -28   12    4  -29  -66   36   65  -18   -6  -30   11
  23   23   -4  -45   55   -2    9    0   -7  -28  -14   59  -39  -21  -24   20
  23  -14  -19  -13   17   33   31   62  -18    1   18    2   -3  -16  -13    7
  23    0    0   16   44   25  -29  -18  -20   -7  -15   28   -1   18   -5   -4
  29    1   -9  -40  -11   15  -20  -10   15    7   11    5  -40   -9  -20    6
  46  -22    3   -5   10   -9    6  -31   15    4   -4  -18    8   11  -24   34
 -12  -46  -17   10   41   20  -22  -32  -11  -40  -22  -12  -17   15  -15   23
  -1  -27    9  -11  -18  -21   21   30    2  -21   22   12  -10  -14   -5   10
  -8    9  -14    5  -31  -15   -6   -9  -12  -14   -3    2  -14    5   17   26
  -5  -11   12  -19   -4    1    5  -26   30  -32  -18   39   27  -18   -1  -25
 -10    4   -7  -37  -28   -9   41   42  -17   -3   -2  -18   20    1    2   24
 -11   40    9  -15   -9    6    3   26  -28   20  -14   30    6   21  -22  -11
  17   24    2   28  -22   -8    7    2    4   -3  -19   21    9    5  -21   43
   0   42  -44   -5  -20   23   -6   -3   34    5   35  -11   47  -13  -22   37
   5   -1  -50  -21    4  -15  -15  -12   13  -28   33  -40   38   27  -28  -20
 -14  -20   -6  -26  -18  -25   19   24   -4  -32  -10   28   44   23   -9  -16
 -48  -24   24    0   -8   12   17  -11    4  -21   15   29  -22   16   17  -19
  -7   17   36    4   -7  -36  -28   10    8   -7  -27   10  -25   18   -4    4
  26   21  -25  -54   43   13   16   -3  -22   11   12  -23   15  -15    5  -15
  42   12  -12  -14   33  -14   11    8  -10   20   -5  -12   31   -3  -16    9
  45   -9   -6  -18  -11   -7   15   -1  -38   11  -30   -2   32   16    3   -8
  13   36   45   23   -7  -16  -16   20  -59   22   -8   -7  -65    4   21  -13
   9   77   57   -5   10  -17  -12  -30   -3   40  -17   14  -43   -5  -10   35
  40   10  -24   -2  -11   -8    2  -47   21   30    9    1   39  -57  -20   25
  34    0  -15   52  -20   36  -44   23  -23   26  -54  -24  -18  -27  -14   -4
 -29   21   32   70  -11   22  -20  -50   30   12  -22  -37   32  -37    5    1
  12   19  -12   18  -30   17  -13  -18   53   23   39  -28    0  -36  -18  -16
  30  -41   39   27   -5   -5   22  -20   28    6  -26 -106  -11   39  -13  -23
  29   22   40   32   -9  -40   18  -27   24   58  -27  -28   29   38  -22    0
  34  -20   -3   42  -11  -17   34   -6   43   28  -18  -38   15   56    8   -4
