 -67   37   19   14  -78  -11   -9   25   24  -17
  17  -33   16  -35    8    1  -52   56   -5   17
 -59   44  -50  -11   60   29   -6   -3  -39   47
  49  -55  -56   51  -13  -12  -11  -14   11  -24
 -50   15   -4   61  -48  -54  -11  -24  -25    2
 -49  -59  -45  -84  -63   15   60  -27  -38   29
 -46   14   15   11  -16    9  -45   71  -18  -40
  26  -15   -8   12   40    6   -2  -30   53   -8
   1  -11   -9   -7    4  -20  -59   81  -34    7
 -29  -37   11  -34  -78   50   -6   17   -3   47
  28   81   51   10   20   53  -56  -27  -63   16
  19  -39   -7    7  -29   13   27  -66   48   -8
 -30   31   62   40  -22   -4  -65   99  -45  -59
   3  -87  -62  -29  -99   53    0    2   15  -22
 -15  -34  -60   -8   49   -2  -13  -30  -39   45
  30   20   34  -49   -2   20   37  -14  -44  -39
   7  -49  -29  -47   36  -23   11   17  -58 -120
 -45   34   51   40   19  -51  -90   32  -34    6
  -5   29  -35  -54   -5   -2  -53   40    5   36
 -19  -29  -83   31  -30   61  -24  -30   31   42
 -33    1   32   -6   -5   32   -1  -55   51  -24
 -38   18   30   21  -13   -6   35   37    4  -80
  39  -15  -55   46  -26   59    3  -33  -60  -26
   1   72   30    3  -33   13  -24   -8   36   -9
 -14   18  -27    1   60   -7  -53    2   47    5
  22    3    9  -32  -40  -49   31  -41  -24   32
   0   36   66  -10  -10   18   37  -43  -18  -55
 -80   49   45    1   11    0   45  -41   23  -15
 -20   31  -49  -21   -1   -5  -43  -28  -37  -29
  48  -46   16  -18   -3 -103  -68   31  -32   57
  22   58    3  -81  -16  -53   57   37   22  -23
 -59   -3  -51  -21    8   71  -35  -26   11   -5
 -22   25   55  -52  -29   50   17   -2  -68  -37
 -47   94  -53  -83   69   26   -4  -59   14  -28
  -3   63    3  -15  -22  -27   27    2  -15  -13
  61   15   24  -57    2   -6   48   23  -41  -25
 -31   -1   49   62   -8   10  -91   65  -28 -108
  10   33  -12  -24  -82 -128  -30  -52  -71   26
 -67   26  -64   27   24    4  -46  -13   -8   80
  56   79    6   13  -54   24   -8  -15  -31  -29
  74   -5  -30  -39  -62  -21   -8  -50  -43    9
 -84   -2  -34   29   42   52   12   10   -8  -62
 -17    3   -4    0   -9   -4  -33   -5  -16   41
  35  -35    5  -35   37  -78  -33   54   55  -32
   4  -53  -39  -65   44  -18   77   31  -52   41
  38   -8    2   37   -9  -23  -16  -42   21    3
  53   34   11  -81  -28  -13  -13    6   12  -97
 -32   -2    0  -10   29  -19   14   16    2   26
 -37  -31   33    6   36  -41    2  -33   49   41
 -39  -65  -47  -70   23   25   58  -34  -12  -35
  37  -47   21   40  -33   -6   13  -35   12  -23
   1  -25   14   43  -76  -25   23  -54   67  -84
 -42   -2  -27   31   41    6  -23  -13  -14    8
  24   14   10   60   -4  -38  -36    4   24  -19
  46   52   -4  -23   25   43   17   11   34  -24
   5  -23   74  -20  -20  -12   46  -64  -23    9
  18  -40    7   47  -27   32   24    4   34  -22
 -18  -29  -33   33    2  -43   38  -27    4   34
   2  -14    9  -17   28    0  -26  -27  -44  -16
  35   33   18   -9  -10   12   44   -2  -33  -13
  46  -51   47   23  -91  -31  -91   20   47    3
  26   -3  -35  -11  -55   35  -41  -16    6   48
  26  -15    6  -31   12  -15   26   44   16   19
 -43  -38   29    9   43   18  -17   36  -22   -6
